<?xml version="1.0"?>
<opencv_storage>
<cascade>
  <stageType>BOOST</stageType>
  <featureType>HAAR</featureType>
  <height>50</height>
  <width>50</width>
  <stageParams>
    <boostType>GAB</boostType>
    <minHitRate>9.9500000476837158e-01</minHitRate>
    <maxFalseAlarm>5.0000000000000000e-01</maxFalseAlarm>
    <weightTrimRate>9.4999999999999996e-01</weightTrimRate>
    <maxDepth>1</maxDepth>
    <maxWeakCount>100</maxWeakCount></stageParams>
  <featureParams>
    <maxCatCount>0</maxCatCount>
    <featSize>1</featSize>
    <mode>BASIC</mode></featureParams>
  <stageNum>5</stageNum>
  <stages>
    <!-- stage 0 -->
    <_>
      <maxWeakCount>2</maxWeakCount>
      <stageThreshold>-5.2950024604797363e-02</stageThreshold>
      <weakClassifiers>
        <_>
          <internalNodes>
            0 -1 5 1.6068812459707260e-02</internalNodes>
          <leafValues>
            -9.7028571367263794e-01 9.5835614204406738e-01</leafValues></_>
        <_>
          <internalNodes>
            0 -1 7 2.9158204793930054e-02</internalNodes>
          <leafValues>
            -8.9591062068939209e-01 9.1733568906784058e-01</leafValues></_></weakClassifiers></_>
    <!-- stage 1 -->
    <_>
      <maxWeakCount>1</maxWeakCount>
      <stageThreshold>8.6424869298934937e-01</stageThreshold>
      <weakClassifiers>
        <_>
          <internalNodes>
            0 -1 0 6.8668007850646973e-02</internalNodes>
          <leafValues>
            -9.9740260839462280e-01 8.6424869298934937e-01</leafValues></_></weakClassifiers></_>
    <!-- stage 2 -->
    <_>
      <maxWeakCount>1</maxWeakCount>
      <stageThreshold>8.0928355455398560e-01</stageThreshold>
      <weakClassifiers>
        <_>
          <internalNodes>
            0 -1 4 3.4318123012781143e-02</internalNodes>
          <leafValues>
            -9.8050141334533691e-01 8.0928355455398560e-01</leafValues></_></weakClassifiers></_>
    <!-- stage 3 -->
    <_>
      <maxWeakCount>2</maxWeakCount>
      <stageThreshold>-6.8933121860027313e-02</stageThreshold>
      <weakClassifiers>
        <_>
          <internalNodes>
            0 -1 3 -8.6199194192886353e-03</internalNodes>
          <leafValues>
            8.8720172643661499e-01 -8.5981309413909912e-01</leafValues></_>
        <_>
          <internalNodes>
            0 -1 6 -1.6191466711461544e-03</internalNodes>
          <leafValues>
            7.9087996482849121e-01 -8.6248803138732910e-01</leafValues></_></weakClassifiers></_>
    <!-- stage 4 -->
    <_>
      <maxWeakCount>2</maxWeakCount>
      <stageThreshold>-2.9950389266014099e-01</stageThreshold>
      <weakClassifiers>
        <_>
          <internalNodes>
            0 -1 1 6.2395974993705750e-02</internalNodes>
          <leafValues>
            -9.7575759887695312e-01 9.0933334827423096e-01</leafValues></_>
        <_>
          <internalNodes>
            0 -1 2 -1.9508069381117821e-02</internalNodes>
          <leafValues>
            -9.6914446353912354e-01 6.7625367641448975e-01</leafValues></_></weakClassifiers></_></stages>
  <features>
    <_>
      <rects>
        <_>
          0 23 50 22 -1.</_>
        <_>
          0 34 50 11 2.</_></rects>
      <tilted>0</tilted></_>
    <_>
      <rects>
        <_>
          4 0 32 22 -1.</_>
        <_>
          4 11 32 11 2.</_></rects>
      <tilted>0</tilted></_>
    <_>
      <rects>
        <_>
          6 8 44 26 -1.</_>
        <_>
          6 8 22 13 2.</_>
        <_>
          28 21 22 13 2.</_></rects>
      <tilted>0</tilted></_>
    <_>
      <rects>
        <_>
          10 23 28 16 -1.</_>
        <_>
          10 23 14 8 2.</_>
        <_>
          24 31 14 8 2.</_></rects>
      <tilted>0</tilted></_>
    <_>
      <rects>
        <_>
          21 9 12 27 -1.</_>
        <_>
          21 18 12 9 3.</_></rects>
      <tilted>0</tilted></_>
    <_>
      <rects>
        <_>
          22 4 3 27 -1.</_>
        <_>
          22 13 3 9 3.</_></rects>
      <tilted>0</tilted></_>
    <_>
      <rects>
        <_>
          22 19 1 6 -1.</_>
        <_>
          22 22 1 3 2.</_></rects>
      <tilted>0</tilted></_>
    <_>
      <rects>
        <_>
          23 0 8 22 -1.</_>
        <_>
          23 11 8 11 2.</_></rects>
      <tilted>0</tilted></_></features></cascade>
</opencv_storage>
